<?xml version="1.0"?>
<opencv_storage>
<my_svm type_id="opencv-ml-svm">
  <svm_type>C_SVC</svm_type>
  <kernel><type>LINEAR</type></kernel>
  <C>1.0000000000000001e-001</C>
  <term_criteria><epsilon>2.2204460492503131e-016</epsilon>
    <iterations>10000000</iterations></term_criteria>
  <var_all>900</var_all>
  <var_count>900</var_count>
  <class_count>2</class_count>
  <class_labels type_id="opencv-matrix">
    <rows>1</rows>
    <cols>2</cols>
    <dt>i</dt>
    <data>
      0 6</data></class_labels>
  <sv_total>1</sv_total>
  <support_vectors>
    <_>
      -4.98839691e-002 1.59955153e-003 9.96171380e-004 7.93434796e-004
      2.66051356e-004 3.94638846e-006 -3.38240148e-004 1.41617929e-004
      -2.07795128e-002 -8.20835773e-003 2.75383820e-003 6.24381297e-004
      5.66389062e-005 1.26534048e-003 1.94690586e-003 1.85419340e-003
      -1.13664959e-004 -3.68738780e-004 3.63259023e-004 -4.54955688e-003
      -1.21668265e-004 2.18853129e-005 1.10367197e-003 1.54218567e-003
      2.69964780e-003 3.87614919e-003 2.86937080e-004 6.83892693e-004
      -4.57670400e-003 1.41080271e-003 -2.76506296e-004 -4.32779174e-003
      -8.50113633e-004 -3.29300994e-003 5.03147207e-003 -5.15467873e-005
      -8.10685015e-005 9.72895243e-004 8.67109559e-003 -1.22932019e-004
      -5.53156994e-003 -8.09113402e-003 -3.10413260e-002
      -2.31272541e-003 -2.22833571e-003 3.69408626e-005 1.23130518e-003
      1.26925409e-002 7.59941933e-004 3.63781030e-004 -1.04415580e-003
      -3.73239890e-002 -6.16204925e-003 -2.35017342e-003
      -3.12291755e-004 6.63412575e-005 1.17075760e-002 1.18356210e-003
      -7.90596474e-004 -2.22607702e-003 -3.65295000e-002
      -4.10966808e-003 -1.58100971e-003 -4.53576446e-004 3.94307281e-005
      3.90476873e-003 2.06463877e-003 -1.00232684e-003 -2.47192546e-003
      -3.01593747e-002 -3.36883310e-003 -1.36559969e-003
      -1.11555762e-003 -1.48528721e-004 -2.52756942e-003 4.33016242e-003
      7.32357381e-003 2.58807838e-003 -2.10341183e-003 -8.43238831e-003
      -3.23796435e-003 1.31055678e-003 1.01443147e-003 -7.53070519e-004
      -6.95459684e-003 6.92354217e-002 -2.53826845e-004 1.45858867e-004
      8.79027357e-004 1.88819424e-003 -3.75164934e-002 -3.32706259e-004
      -9.88173124e-005 -1.43067286e-004 -3.42335523e-004
      -9.84818398e-005 -3.08980161e-005 -1.32777845e-004
      -2.75340173e-002 -1.56055409e-002 3.78945330e-003 -1.61325588e-005
      3.95975396e-004 3.54977250e-002 8.42992216e-004 3.14816643e-005
      2.84218928e-004 3.53410542e-005 2.23378129e-002 2.57892651e-003
      -4.73283557e-003 -2.56190146e-003 3.47447805e-002 -3.08163743e-003
      4.77566413e-004 1.15265022e-003 6.71650923e-004 1.90946627e-002
      8.56550876e-003 -3.52928485e-003 -6.78936159e-003 -3.42338718e-002
      -1.17319934e-002 5.64400991e-003 1.43419462e-003 -5.03410306e-003
      -1.74105037e-002 -1.69820152e-003 -1.14948610e-002
      -1.48548102e-002 -8.56806040e-002 -3.73335853e-002 9.22990404e-003
      -2.96225538e-004 -1.04555301e-002 -1.59119777e-002
      -2.24808473e-002 -4.20145923e-003 -5.29783359e-003
      -2.09924970e-002 -5.50918840e-003 6.83135306e-003 -4.20233794e-003
      -1.30808549e-002 -3.13815065e-002 -9.30664781e-003
      -1.67678576e-002 -2.23940355e-004 -2.59274952e-002
      -5.95449610e-003 2.96127703e-003 3.13791912e-003 -2.22102962e-002
      -2.54579391e-002 -1.12378411e-002 -7.82124326e-003
      -3.75912036e-003 -1.21104876e-002 -7.40106683e-003 3.76062095e-003
      2.38786777e-003 -2.51466315e-002 -2.44964864e-002 -1.04878200e-002
      -1.03751896e-002 2.10076076e-004 2.06019003e-002 4.26302548e-004
      3.57238605e-004 -1.67380348e-002 -2.31670216e-002 1.48683591e-002
      4.26665152e-004 3.06661852e-004 -3.54076619e-003 5.63190356e-002
      -2.89556629e-004 6.10201132e-005 1.53155983e-004 1.88778294e-003
      -3.69783752e-002 2.61308713e-004 -1.61563672e-004 -3.60310718e-004
      -1.34652795e-003 -1.16589786e-006 9.21500668e-006 3.21331681e-005
      -2.55131200e-002 3.03625991e-003 -2.78911524e-004 1.20107085e-004
      -8.60596119e-005 2.90608890e-002 -1.39381960e-002 -1.66579048e-004
      2.30762802e-004 -1.86135364e-003 4.06844867e-003 -6.43213838e-003
      1.13082759e-003 7.33142369e-004 5.24946004e-002 -2.93216631e-002
      1.50047604e-003 8.40748777e-004 4.88832453e-003 -1.89602305e-003
      -3.15669961e-002 6.45819306e-003 2.24891840e-003 -3.76107432e-002
      -5.57763986e-002 4.54543019e-003 2.70102709e-003 5.40255057e-003
      -4.53599961e-003 -4.91584316e-002 7.89070595e-003 3.61982943e-003
      1.70580181e-003 -1.61549374e-002 7.17213098e-003 3.70901031e-003
      2.06385530e-003 1.42197066e-003 -1.11626238e-002 -1.22327711e-002
      5.09414962e-003 3.75857460e-003 3.72504583e-003 7.44192023e-003
      3.48367356e-003 1.94914092e-003 1.77245692e-003 3.83881759e-003
      -1.85287856e-002 -1.83444247e-002 1.67700797e-002 4.80951276e-003
      7.35188555e-003 2.99714389e-003 -3.93410400e-003 4.22098562e-002
      3.89034837e-003 -1.43615226e-003 -5.18613495e-002 2.93632876e-002
      4.63489350e-003 4.25719144e-003 9.37722530e-003 -3.61113511e-002
      2.26585623e-002 7.12823530e-004 6.85932406e-004 -3.63129154e-002
      3.56715061e-002 2.88770214e-004 -1.32046029e-004 -2.32488457e-002
      -1.88903809e-002 -7.90595450e-003 3.64017818e-004 9.87368476e-005
      -5.53098274e-003 4.69179489e-002 -4.71581501e-004 -2.03521995e-004
      -5.46463905e-003 -2.72519179e-002 -3.07171345e-002 2.68712174e-004
      7.02994885e-006 -6.38223446e-006 -2.58498103e-003 -1.93304095e-006
      4.25030657e-006 4.05261853e-005 -2.80665345e-002 9.28906375e-004
      8.11098362e-005 4.26783045e-005 2.98345229e-004 7.96073303e-003
      1.60756428e-003 4.47924598e-004 1.64094934e-004 5.18802553e-003
      -2.18486646e-004 2.12389301e-003 8.67195893e-004 3.97068798e-004
      3.84541862e-002 4.00131056e-003 2.65725772e-003 1.83482259e-003
      7.27246841e-003 -3.53583507e-002 4.04817844e-003 3.37085244e-003
      7.32969551e-004 -7.07629696e-002 1.93173042e-003 4.90593305e-003
      3.65606067e-003 9.50948684e-004 -8.95251241e-003 4.87350207e-003
      4.64132847e-003 1.45590981e-003 -7.43573590e-004 1.66887871e-003
      3.89205455e-003 2.08855607e-003 -1.64215351e-004 9.22226871e-004
      3.31947301e-003 7.20315846e-003 5.45901014e-003 5.38687035e-003
      2.43547303e-003 3.79454950e-003 2.61772610e-003 1.92548626e-003
      1.16747804e-003 2.58784252e-003 4.52926243e-003 3.68309347e-003
      1.14864763e-002 3.49927507e-003 3.42343585e-003 1.72093464e-003
      9.51141701e-004 7.97127094e-003 1.53456070e-003 2.83250236e-003
      3.30698839e-003 -1.19439336e-002 2.79029692e-003 3.65238287e-003
      1.98661094e-003 6.29878882e-003 9.29615181e-003 5.12033061e-004
      4.43285157e-004 1.48607756e-003 -1.78016666e-002 3.26337223e-003
      2.76658894e-003 1.75457890e-003 7.85759371e-003 -5.21618500e-002
      -3.42161584e-005 -5.19886271e-005 1.00391917e-004 4.14121523e-002
      1.84362361e-004 -8.84783803e-005 -9.19296508e-006 -7.08388211e-003
      -3.46988812e-002 2.85053306e-004 5.07449477e-005 -2.86566628e-008
      -2.12210533e-003 2.19780704e-005 2.24289561e-005 1.15859104e-004
      -2.09480748e-002 6.94995839e-003 1.21954603e-004 6.77585194e-005
      5.64253096e-005 1.91701520e-002 1.21718738e-003 6.13344542e-004
      2.05712684e-004 8.55996506e-004 8.94175842e-003 6.54683274e-004
      3.53832555e-004 1.77028502e-004 3.90684642e-002 1.67818950e-003
      1.81326235e-003 1.29733176e-003 1.12626422e-002 -3.25066335e-002
      1.21678645e-003 8.79333820e-004 5.12473460e-004 -6.04307689e-002
      1.09491812e-003 1.82013493e-003 2.12609768e-003 1.06561347e-003
      3.73247429e-004 2.76311464e-003 2.50332104e-003 8.39504472e-004
      -5.96614263e-004 6.26625842e-004 1.90117245e-003 2.48789950e-003
      1.67376956e-003 1.37089519e-003 2.49798899e-003 2.12208647e-003
      3.09385266e-003 6.50481787e-003 2.31045950e-003 2.34101689e-003
      9.76402313e-004 6.13616430e-004 5.59963402e-004 6.20008039e-004
      1.76824548e-003 2.52102851e-003 2.35537402e-002 2.98976758e-003
      2.31555570e-003 3.08575400e-004 1.39579628e-004 1.99818686e-002
      5.31987578e-004 9.94233415e-004 3.01004096e-004 1.91824767e-003
      2.14271410e-003 3.76459607e-003 6.98075746e-004 4.94587701e-003
      1.58189107e-002 3.48946669e-005 1.04559527e-004 4.85665842e-005
      -1.57393292e-002 3.12711403e-004 1.27821974e-003 4.03304235e-004
      4.40531783e-003 -4.87416349e-002 2.24774321e-005 -1.32688423e-004
      -1.86841586e-004 4.36275490e-002 -1.92611071e-004 -1.91496219e-004
      1.73801600e-004 -8.09289142e-003 -2.95390990e-002 1.15629819e-005
      -5.34033097e-006 1.59428801e-005 -2.28612404e-003 -2.60429133e-005
      9.52218397e-006 5.65720984e-005 -2.77255513e-002 9.19550541e-004
      1.09812325e-004 1.02625447e-004 3.13515920e-005 2.84121279e-002
      5.26783755e-004 5.86401293e-005 2.64038608e-005 4.77513997e-003
      2.17508860e-002 7.60173367e-004 6.42605082e-005 7.12362162e-005
      4.01644446e-002 1.03695749e-003 1.46083499e-003 9.08052200e-004
      1.43920565e-002 -2.87809968e-002 2.55056215e-003 2.32314065e-004
      4.07617881e-005 -5.17019741e-002 1.37231502e-004 1.27930706e-003
      1.64234987e-003 -3.15190339e-003 5.04711468e-004 2.23410432e-003
      1.00639381e-003 3.14757723e-004 -1.14580581e-003 4.45348356e-004
      1.08253676e-003 1.92775298e-003 2.56138085e-003 3.29715462e-004
      5.69583906e-004 1.73935399e-003 2.19570077e-003 5.85344993e-003
      3.16303084e-003 2.36054719e-003 7.32732180e-004 3.96521093e-004
      2.21142574e-004 6.33634510e-004 1.96860754e-003 3.24356742e-003
      2.50434801e-002 3.75777530e-003 2.32964801e-003 4.24462371e-004
      5.67826683e-005 2.56176032e-002 1.09609617e-004 1.38208421e-003
      1.73450995e-003 1.42657300e-002 1.41645689e-003 1.75682618e-003
      1.45529964e-004 3.11201019e-003 2.60875449e-002 5.18435809e-005
      7.79389811e-005 5.79711341e-004 -1.82824228e-002 2.06830839e-004
      1.24385650e-003 2.09560822e-004 4.98421770e-003 -4.50601317e-002
      -5.52162419e-007 4.69713523e-005 -5.85603761e-004 3.88831086e-002
      -3.35150216e-005 1.26569808e-004 1.66542173e-004 -9.06786975e-003
      -2.99292821e-002 -1.94513959e-005 7.53568929e-006 1.24395892e-005
      -2.50496366e-003 3.28867791e-005 4.45318910e-005 -4.03018697e-004
      -2.64892690e-002 -6.22354727e-003 5.29025829e-006 -2.06844052e-005
      7.49478841e-006 2.66531296e-002 4.74156004e-005 1.61362605e-005
      8.47821411e-006 1.01703778e-002 2.42360067e-002 3.86456435e-004
      4.43424324e-005 2.38349079e-004 3.42306867e-002 1.21091180e-004
      1.32503410e-004 4.48855717e-004 1.78961121e-002 -2.85496619e-002
      7.03303202e-004 2.63094960e-004 7.81858223e-004 -4.22273465e-002
      2.31008022e-003 8.14126804e-004 1.25197915e-003 -8.61216336e-003
      -4.48372302e-004 1.14647124e-003 5.80765132e-004 1.63332839e-003
      7.96779292e-004 5.25679206e-003 2.43622367e-003 3.26033076e-003
      5.09120012e-003 3.66779091e-003 9.09365364e-004 8.03121366e-004
      1.78047817e-003 8.18164367e-003 1.26753524e-002 2.81871436e-003
      1.20278983e-003 3.16564995e-003 1.78966520e-003 9.70899942e-004
      5.28018980e-004 7.49286439e-004 1.82848722e-002 8.36917106e-003
      1.61607610e-003 1.15030643e-003 2.81991344e-003 2.40418520e-002
      3.64908483e-004 5.95171703e-004 8.05870150e-005 1.72763206e-002
      2.50524230e-004 1.14901818e-003 3.79690784e-004 6.79697888e-003
      2.86393203e-002 1.23604405e-004 6.65260377e-005 1.33067835e-004
      -9.30686481e-003 -2.62368092e-004 3.05533467e-005 1.85764147e-005
      4.42349631e-003 -3.40620466e-002 2.61231071e-006 -1.98510479e-005
      -6.25010522e-004 3.36791016e-002 -1.84276534e-004 -1.03489641e-004
      8.49630123e-006 -1.17676044e-002 -2.50103008e-002 -9.96086455e-005
      3.72537920e-006 4.62823009e-005 -2.98342551e-003 5.90516502e-005
      4.40813856e-005 -1.99944174e-004 -3.37262042e-002 -8.26107245e-003
      2.81971406e-005 7.46227088e-005 4.70972554e-005 2.40759645e-002
      2.23400304e-004 9.12025207e-005 2.98370665e-004 7.32934149e-003
      1.39709804e-002 5.25656040e-004 2.89673713e-004 2.42488357e-004
      2.72783693e-002 4.97950357e-004 5.79478219e-004 2.02955469e-003
      2.62197051e-002 -1.86868608e-002 6.66140870e-004 5.62681700e-004
      2.95265624e-003 -3.92057449e-002 4.35099145e-003 1.18361542e-003
      5.58767887e-003 -2.39146072e-002 4.30062413e-003 5.82679932e-004
      4.37690964e-004 4.12628660e-003 7.58332247e-003 1.10480990e-002
      1.72107178e-003 3.05004464e-003 -3.46264802e-004 6.55401871e-003
      1.72399881e-003 7.91137922e-004 1.63164386e-003 6.16466021e-003
      1.95256043e-002 1.99450366e-003 -1.88039057e-003 7.79152336e-003
      8.44882336e-003 3.50612355e-003 4.75035515e-004 7.82182207e-004
      9.50894132e-003 9.99667216e-003 -5.73755475e-004 2.27017142e-003
      4.81502572e-003 1.98055618e-002 9.55251919e-004 6.65318628e-004
      7.50488718e-004 2.30862461e-002 -4.09037387e-003 1.14975218e-003
      4.18374315e-004 1.43651962e-002 2.63707936e-002 5.29087374e-005
      5.79125208e-006 3.27723945e-004 3.32845072e-003 1.04232086e-003
      9.48480447e-005 7.59357790e-005 1.21026617e-002 -2.33163461e-002
      1.29079723e-004 -3.06662580e-004 -5.03832009e-004 2.90318783e-002
      -3.76772223e-004 -4.29279578e-004 2.00302893e-005 -1.29528362e-002
      -2.12127902e-002 7.05681960e-005 -3.63831277e-005 1.37094787e-004
      -3.59461363e-003 -1.70214480e-005 1.69379535e-004 -1.93586413e-004
      -3.51981036e-002 -3.28015327e-003 1.27951134e-004 6.66013439e-005
      1.90081300e-005 2.05243714e-002 1.84956368e-003 1.22941972e-003
      -9.49171954e-004 -4.67954623e-003 5.27005410e-003 5.00530994e-004
      1.19418709e-003 3.33481352e-003 7.94385746e-003 3.58241936e-003
      2.32302467e-003 -1.20990034e-002 2.25637220e-002 5.49491262e-003
      2.21172930e-003 2.36251554e-003 5.90154016e-003 -2.20804792e-002
      1.58953983e-002 1.21755050e-002 5.01042604e-003 -3.16134095e-002
      1.10586435e-002 3.61844408e-003 3.66485398e-003 6.03779638e-003
      1.27089135e-002 2.30421163e-002 5.31006185e-003 1.78159517e-003
      8.75850208e-003 1.23604564e-002 4.77015181e-003 2.63074529e-003
      5.54567948e-003 5.73646929e-003 1.80296618e-002 -8.81189946e-003
      1.19447717e-002 1.19054150e-002 7.24488683e-003 3.86206969e-003
      1.27224275e-003 2.12141732e-003 6.06851419e-003 8.82765744e-003
      -1.30777620e-002 8.48392118e-003 9.56201553e-003 5.08870278e-003
      1.00856007e-003 2.15630862e-004 5.38862776e-004 2.74611190e-002
      -1.42198857e-002 -1.98407797e-003 2.90627987e-003 2.51942966e-002
      1.10737430e-002 -9.81121138e-006 1.03832635e-005 5.60895605e-005
      -7.01337296e-004 -8.16495391e-004 -6.29514747e-004 4.31298467e-005
      1.88285802e-002 -1.67071819e-002 -3.03145498e-005 3.46190529e-004
      2.96346232e-004 3.10125891e-002 -1.72317249e-003 -6.59035053e-004
      -3.24759691e-004 -1.31186256e-002 -1.28178718e-003 1.79546443e-003
      4.30304324e-003 4.71093954e-004 -1.96013111e-003 1.00150134e-003
      9.11305100e-003 2.33542593e-003 -5.80348447e-003 -6.23484200e-004
      -1.02592123e-004 3.45297414e-003 -3.37306352e-004 7.31448038e-003
      3.72819486e-003 5.98785467e-004 1.35033194e-003 -1.49230473e-003
      3.81854293e-003 -2.46727630e-003 -6.63929014e-003 2.19800044e-003
      3.33032478e-003 1.92052813e-003 -2.58006193e-002 -4.16987902e-003
      8.56187195e-003 4.53541055e-003 1.52974928e-004 -1.29307667e-003
      4.46176156e-003 -2.66583171e-003 7.17022363e-003 4.15817788e-003
      -1.30184768e-002 -7.74534885e-003 7.68361846e-003 5.05486317e-003
      -5.58895338e-003 8.13416671e-003 5.32054761e-003 9.06516705e-003
      -1.90937351e-002 -3.05767730e-003 4.96256631e-003 6.45290967e-003
      7.00978702e-003 -9.42992792e-003 6.57899072e-003 3.85090406e-003
      6.57322258e-003 -3.59746031e-002 1.53880045e-002 5.60791744e-003
      2.69384705e-003 5.39063197e-003 -1.08343204e-002 5.37181972e-003
      2.25808052e-003 4.36960114e-003 -2.95037497e-002 1.15091503e-002
      3.22990236e-003 5.23793232e-003 3.08217527e-003 -3.60472850e-003
      4.50145133e-004 8.04177858e-003 4.97964269e-004 -1.55768320e-002
      5.53201279e-003 1.09957932e-002 4.95824544e-003 1.99487852e-003
      1.14578567e-002 5.16903179e-004 -5.55948215e-003 -4.23398660e-003
      2.05745753e-002 3.12624499e-003 6.85519632e-003 -2.37922417e-003
      3.88673536e-004 4.33930336e-003 1.28084479e-003 1.65510383e-002
      1.04924459e-002 -1.50721485e-003 -6.99769298e-004 -6.59546489e-003</_></support_vectors>
  <decision_functions>
    <_>
      <sv_count>1</sv_count>
      <rho>-9.9293022320604885e-001</rho>
      <alpha>
        1.</alpha>
      <index>
        0</index></_></decision_functions></my_svm>
</opencv_storage>
